digraph Tree {
node [shape=box] ;
0 [label="Variance <= 0.576\nentropy = 0.992\nsamples = 960\nvalue = [530, 430]"] ;
1 [label="Curtosis <= -0.394\nentropy = 0.967\nsamples = 660\nvalue = [260, 400]"] ;
0 -> 1 [labeldistance=2.5, labelangle=45, headlabel="True"] ;
2 [label="Variance <= 0.174\nentropy = 0.322\nsamples = 188\nvalue = [11, 177]"] ;
1 -> 2 ;
3 [label="entropy = 0.0\nsamples = 93\nvalue = [0, 93]"] ;
2 -> 3 ;
4 [label="Curtosis <= -0.859\nentropy = 0.517\nsamples = 95\nvalue = [11, 84]"] ;
2 -> 4 ;
5 [label="entropy = 0.0\nsamples = 53\nvalue = [0, 53]"] ;
4 -> 5 ;
6 [label="Curtosis <= -0.618\nentropy = 0.83\nsamples = 42\nvalue = [11, 31]"] ;
4 -> 6 ;
7 [label="entropy = 0.991\nsamples = 18\nvalue = [10, 8]"] ;
6 -> 7 ;
8 [label="entropy = 0.25\nsamples = 24\nvalue = [1, 23]"] ;
6 -> 8 ;
9 [label="Variance <= -1.303\nentropy = 0.998\nsamples = 472\nvalue = [249, 223]"] ;
1 -> 9 ;
10 [label="Variance <= -1.532\nentropy = 0.382\nsamples = 121\nvalue = [9, 112]"] ;
9 -> 10 ;
11 [label="entropy = 0.0\nsamples = 70\nvalue = [0, 70]"] ;
10 -> 11 ;
12 [label="Curtosis <= 1.432\nentropy = 0.672\nsamples = 51\nvalue = [9, 42]"] ;
10 -> 12 ;
13 [label="entropy = 0.0\nsamples = 29\nvalue = [0, 29]"] ;
12 -> 13 ;
14 [label="entropy = 0.976\nsamples = 22\nvalue = [9, 13]"] ;
12 -> 14 ;
15 [label="Curtosis <= 0.114\nentropy = 0.9\nsamples = 351\nvalue = [240, 111]"] ;
9 -> 15 ;
16 [label="Variance <= -0.274\nentropy = 0.997\nsamples = 154\nvalue = [82, 72]"] ;
15 -> 16 ;
17 [label="entropy = 0.823\nsamples = 66\nvalue = [17, 49]"] ;
16 -> 17 ;
18 [label="entropy = 0.829\nsamples = 88\nvalue = [65, 23]"] ;
16 -> 18 ;
19 [label="Variance <= -0.25\nentropy = 0.718\nsamples = 197\nvalue = [158, 39]"] ;
15 -> 19 ;
20 [label="entropy = 0.835\nsamples = 147\nvalue = [108, 39]"] ;
19 -> 20 ;
21 [label="entropy = 0.0\nsamples = 50\nvalue = [50, 0]"] ;
19 -> 21 ;
22 [label="Curtosis <= -0.433\nentropy = 0.469\nsamples = 300\nvalue = [270, 30]"] ;
0 -> 22 [labeldistance=2.5, labelangle=-45, headlabel="False"] ;
23 [label="entropy = 0.0\nsamples = 165\nvalue = [165, 0]"] ;
22 -> 23 ;
24 [label="Curtosis <= -0.07\nentropy = 0.764\nsamples = 135\nvalue = [105, 30]"] ;
22 -> 24 ;
25 [label="Variance <= 1.345\nentropy = 0.918\nsamples = 90\nvalue = [60, 30]"] ;
24 -> 25 ;
26 [label="Variance <= 1.042\nentropy = 0.951\nsamples = 81\nvalue = [51, 30]"] ;
25 -> 26 ;
27 [label="entropy = 0.825\nsamples = 58\nvalue = [43, 15]"] ;
26 -> 27 ;
28 [label="entropy = 0.932\nsamples = 23\nvalue = [8, 15]"] ;
26 -> 28 ;
29 [label="entropy = 0.0\nsamples = 9\nvalue = [9, 0]"] ;
25 -> 29 ;
30 [label="entropy = 0.0\nsamples = 45\nvalue = [45, 0]"] ;
24 -> 30 ;
}